{"layers":[{"neurons":[{"value":0.7280556559562683,"weights":[],"bias":0.0},{"value":-0.7333329916000366,"weights":[],"bias":0.0},{"value":1.0,"weights":[],"bias":0.0}]},{"neurons":[{"value":0.5209195017814636,"weights":[1.5318551063537598,-1.9185128211975098,-1.3669819831848145],"bias":0.0},{"value":0.8855214715003967,"weights":[0.4206244945526123,-1.9522862434387208,1.0636601448059083],"bias":0.0},{"value":-0.7627039551734924,"weights":[-1.2132887840270997,0.8666867613792419,-0.4863851070404053],"bias":0.0}]},{"neurons":[{"value":0.6908775568008423,"weights":[1.1052632331848145,0.8105177283287048,-0.532031774520874],"bias":0.0},{"value":-0.6729441285133362,"weights":[-1.4055800437927247,-1.2720232009887696,-0.29682230949401858],"bias":0.0},{"value":0.036589816212654117,"weights":[-1.2098627090454102,1.5790915489196778,0.9110559821128845],"bias":0.0},{"value":-0.7009086012840271,"weights":[-1.8458805084228516,-1.8719878196716309,-1.15519380569458],"bias":0.0}]},{"neurons":[{"value":0.47252583503723147,"weights":[-0.2606990337371826,-0.5371963977813721,0.9661516547203064,-1.1554884910583497],"bias":0.0},{"value":0.850454568862915,"weights":[0.8626002669334412,-1.2404208183288575,-0.3561241626739502,-1.5664429664611817],"bias":0.0},{"value":-0.4471537470817566,"weights":[-0.7804276943206787,1.2339634895324708,1.3785443305969239,-0.5091292858123779],"bias":0.0}]},{"neurons":[{"value":-0.20563773810863496,"weights":[1.8233485221862794,-1.2744932174682618,0.4358799457550049],"bias":0.0},{"value":-0.3293331265449524,"weights":[-0.12806344032287599,-1.018073558807373,-0.5415990352630615],"bias":0.0}]},{"neurons":[{"value":-0.08168759196996689,"weights":[1.0713210105895997,-0.1717526912689209],"bias":0.0}]}]}