{"layers":[{"neurons":[{"value":0.0,"weights":[],"bias":0.0},{"value":0.0,"weights":[],"bias":0.0},{"value":0.0,"weights":[],"bias":0.0},{"value":0.0,"weights":[],"bias":0.0},{"value":0.0,"weights":[],"bias":0.0},{"value":0.0,"weights":[],"bias":0.0},{"value":1.0,"weights":[],"bias":0.0},{"value":1.0,"weights":[],"bias":0.0},{"value":1.0,"weights":[],"bias":0.0},{"value":0.0,"weights":[],"bias":0.0},{"value":1.0,"weights":[],"bias":0.0},{"value":1.0,"weights":[],"bias":0.0},{"value":1.0,"weights":[],"bias":0.0},{"value":0.0,"weights":[],"bias":0.0},{"value":0.0,"weights":[],"bias":0.0},{"value":1.0,"weights":[],"bias":0.0},{"value":1.0,"weights":[],"bias":0.0},{"value":1.0,"weights":[],"bias":0.0},{"value":1.0,"weights":[],"bias":0.0},{"value":1.0,"weights":[],"bias":0.0},{"value":0.0,"weights":[],"bias":0.0},{"value":0.0,"weights":[],"bias":0.0},{"value":1.0,"weights":[],"bias":0.0},{"value":0.0,"weights":[],"bias":0.0},{"value":0.0,"weights":[],"bias":0.0},{"value":1.0,"weights":[],"bias":0.0}]},{"neurons":[{"value":-0.9429600834846497,"weights":[-0.793681263923645,1.8674832582473755,0.6913039684295654,-0.9979563355445862,1.6148570775985718,-0.7511082887649536,0.2729549705982208,-1.9446748495101929,-1.1700812578201295,1.4727973937988282,0.2974962592124939,1.8408788442611695,1.6259474754333497,-1.841870665550232,1.5015406608581544,-0.4689521789550781,-1.8336234092712403,1.5563178062438965,1.1576236486434937,-1.9101102352142335,0.2251581996679306,-0.7839969992637634,-1.4764541387557984,-0.03871939703822136,0.43445900082588198,-1.475541591644287],"bias":0.0},{"value":0.9677647352218628,"weights":[-1.039313554763794,1.3521167039871216,0.6992473006248474,1.162416696548462,-0.3940757215023041,0.277242511510849,1.5866353511810303,0.7669806480407715,-1.8688212633132935,-0.783261775970459,1.8430746793746949,0.5295891761779785,1.7625625133514405,-1.1275399923324586,0.2923813462257385,1.9123080968856812,1.6673837900161744,-0.3750914931297302,-1.6172128915786744,0.04476489871740341,-0.20258867740631104,1.8688675165176392,-1.0543168783187867,-0.7442792057991028,1.3860317468643189,-1.0862603187561036],"bias":0.0},{"value":0.9891116619110107,"weights":[1.3687106370925904,0.42875298857688906,1.7125755548477173,-1.4569579362869263,-1.2385910749435425,0.11983077973127365,0.45407363772392275,0.7642002701759338,0.37094685435295107,0.1717241108417511,-0.060078658163547519,0.09027569741010666,-0.8882039785385132,-1.3539148569107056,1.169694423675537,1.951326847076416,-0.10029110312461853,-0.35823678970336916,1.3426367044448853,1.3982532024383546,0.8337567448616028,-0.6467982530593872,-0.3057355284690857,-1.7600172758102418,1.9499977827072144,0.5485891699790955],"bias":0.0},{"value":0.5966570973396301,"weights":[-0.06741468608379364,0.47803986072540285,1.6860876083374024,-0.4615458548069,1.22000253200531,-1.2069259881973267,-2.054307222366333,-1.9563478231430054,-0.34597253799438479,-1.4016419649124146,1.2876636981964112,0.8671010732650757,0.5755820870399475,-1.637995719909668,0.1690823882818222,1.6569098234176636,0.8273893594741821,0.46816742420196535,1.5342514514923096,-1.68118155002594,-1.7403075695037842,0.02047991193830967,1.4423203468322755,0.44790223240852358,1.3824470043182374,-1.2456951141357422],"bias":0.0},{"value":0.9572762250900269,"weights":[1.2551121711730958,-0.14991465210914613,-1.4231873750686646,1.325576663017273,0.7596800327301025,-1.913670539855957,-1.149759292602539,0.31673574447631838,1.3570570945739747,-0.9980967044830322,-1.2895591259002686,1.2693296670913697,1.5000746250152588,1.4575601816177369,-1.4173154830932618,-0.0337657555937767,-1.0764135122299195,0.22967000305652619,-0.19754528999328614,1.1343472003936768,0.2513993978500366,1.8816859722137452,1.4147263765335084,-0.3946914076805115,-0.5545924305915833,0.349658727645874],"bias":0.0},{"value":-0.8454824686050415,"weights":[-0.9861432313919067,0.9694873094558716,-1.4423391819000245,-0.4387083351612091,-0.17139296233654023,0.3559166193008423,-0.49584388732910159,0.28516095876693728,-1.3432260751724244,-1.572249174118042,0.30615973472595217,0.21512015163898469,1.2718660831451417,-0.6000546216964722,-1.6776293516159058,0.12519289553165437,-0.4027881920337677,-1.020479440689087,-0.33121609687805178,-1.5103795528411866,-0.6118165850639343,-1.4969905614852906,0.564499020576477,0.017113715410232545,-1.2350401878356934,-0.1442553997039795],"bias":0.0},{"value":0.9890326261520386,"weights":[-0.5137363076210022,1.1187177896499634,-0.11196394264698029,-1.1661547422409058,-0.346550852060318,-1.7576897144317628,1.440924048423767,-1.017561674118042,0.6531211137771606,0.683474063873291,1.2948983907699586,0.6090872287750244,-0.4726208746433258,-1.4714268445968629,0.7146674394607544,-0.7662960886955261,1.6126599311828614,1.737462043762207,-1.240923523902893,1.7242801189422608,0.0678819864988327,0.43063509464263918,-0.3857336640357971,0.07442238926887512,-1.749509572982788,0.011186838150024414],"bias":0.0},{"value":-0.45313188433647158,"weights":[0.6462767124176025,1.7211638689041138,1.8418771028518677,0.6834062337875366,1.2633416652679444,-1.3284001350402833,-0.15968306362628938,0.4923437237739563,0.5259695649147034,0.9389885067939758,0.31979018449783327,-1.2635852098464966,0.048266492784023288,-1.0578207969665528,1.7285529375076295,0.3668114244937897,-1.6578367948532105,0.38420701026916506,-1.7394905090332032,0.5232850313186646,1.0720422267913819,-0.5767322778701782,-0.24549981951713563,-1.1967787742614747,1.290210485458374,1.4281525611877442],"bias":0.0},{"value":-0.5012778639793396,"weights":[-1.7102657556533814,0.14547567069530488,-2.0388407707214357,-0.6870567798614502,0.7283841967582703,-0.06701556593179703,-0.4030631184577942,-1.1885504722595215,-0.1270293891429901,1.654760479927063,-1.407947063446045,1.3752641677856446,1.301092505455017,-0.6025730967521668,-0.5939403176307678,-0.5322041511535645,1.5972163677215577,0.5552677512168884,-1.3486418724060059,1.708556890487671,0.09078143537044525,-1.8599929809570313,-0.7578233480453491,-1.5343214273452759,1.2378703355789185,-1.874161720275879],"bias":0.0},{"value":0.7733343243598938,"weights":[0.23149462044239045,1.3049685955047608,0.16685700416564942,0.24794213473796845,-1.943969488143921,1.6075624227523804,-0.649544894695282,-0.13003462553024293,1.3667155504226685,-1.5118122100830079,0.03643951192498207,0.5696747899055481,-1.7502537965774537,-1.5729166269302369,-0.047535061836242679,0.43211129307746889,1.8866089582443238,-0.7387809753417969,0.14263314008712769,0.1374557912349701,1.081192135810852,0.9480089545249939,0.2032339870929718,-0.6493008732795715,-1.7790348529815674,0.5508832335472107],"bias":0.0},{"value":-0.6351730227470398,"weights":[0.24186494946479798,-1.6798365116119385,0.12930962443351746,0.8389110565185547,-1.9095674753189088,-1.2710658311843873,-1.4769392013549805,-0.08127281814813614,-1.8038561344146729,0.01920522376894951,-0.512802243232727,-0.45032283663749697,-1.215610384941101,-0.642827570438385,1.9268437623977662,1.26758873462677,1.0441309213638306,2.046663999557495,0.6035027503967285,-0.43407443165779116,-0.08346576988697052,-0.9946731925010681,-1.8036425113677979,1.7533742189407349,-0.9676627516746521,1.3165526390075684],"bias":0.0},{"value":-0.3837510943412781,"weights":[-1.147210717201233,-0.2656116485595703,-0.6588050723075867,-0.9087221026420593,1.740945816040039,1.5356453657150269,-0.7125605344772339,-1.4527368545532227,1.429702639579773,-0.04743088781833649,0.9682106971740723,-0.8126529455184937,0.40216830372810366,1.6847213506698609,0.8657850027084351,1.7042186260223389,-1.5189772844314576,-1.3148860931396485,1.650048851966858,-0.9460288286209106,1.2896171808242798,1.304429531097412,-0.6356320381164551,-0.39312732219696047,-0.9744714498519898,0.430222749710083],"bias":0.0},{"value":-0.8624311089515686,"weights":[1.4846305847167969,-1.1776511669158936,-1.7560312747955323,-1.1471048593521119,1.83191978931427,-1.0972048044204713,1.108681321144104,-0.795328676700592,0.3044911026954651,0.42589208483695986,0.8736822009086609,-0.3186783492565155,-0.40525639057159426,0.45564043521881106,1.1085666418075562,1.550308108329773,-0.8251165151596069,-0.5389418601989746,-0.725287675857544,0.2438976764678955,0.8375502228736877,0.5611413717269898,-1.9449772834777833,-1.161173939704895,1.8063974380493165,-1.132988452911377],"bias":0.0},{"value":-0.46478813886642458,"weights":[-1.5567988157272339,-0.6405078172683716,0.9695159792900086,-0.3953759968280792,1.4895387887954713,1.3773880004882813,-0.7561390399932861,-0.7330467700958252,1.7548407316207886,-1.8018312454223633,-0.23615163564682008,1.6815348863601685,-0.01361931674182415,1.7303930521011353,-1.7958301305770875,-0.7666271328926086,1.3005989789962769,-0.1832500845193863,-1.6406009197235108,-1.688226342201233,-1.1516954898834229,0.5464558601379395,0.4358713924884796,-1.5223573446273804,-1.9617918729782105,-0.1619884967803955],"bias":0.0},{"value":0.9971676468849182,"weights":[-0.8908113837242127,0.49298912286758425,-0.6645916104316711,1.2095876932144166,-0.9731570482254028,1.754541039466858,-1.720603108406067,0.5147528648376465,0.9168417453765869,1.6748600006103516,1.9861869812011719,-0.2390124499797821,-0.926329493522644,0.15308211743831635,0.9908857941627502,0.21096846461296082,1.4865050315856934,1.751627802848816,-0.1131025180220604,0.20675434172153474,-0.734510600566864,-1.3809747695922852,1.1306039094924927,-0.21749331057071687,-1.2807350158691407,1.353179931640625],"bias":0.0},{"value":0.9966424703598023,"weights":[0.5149788856506348,-0.5088587999343872,-0.28388530015945437,1.352281928062439,-0.7549814581871033,-0.6881090998649597,-0.3573850989341736,0.7452786564826965,1.3238487243652344,-0.20683157444000245,-0.24355874955654145,1.5274800062179566,2.084223508834839,1.586167573928833,-1.816386103630066,-1.0971767902374268,0.9386748671531677,-1.542898416519165,0.38875266909599306,0.9220746159553528,1.9218313694000245,-1.951102375984192,0.5349077582359314,-1.6486109495162964,0.04144451767206192,1.1638069152832032],"bias":0.0},{"value":0.4975932538509369,"weights":[0.701938807964325,-1.0507848262786866,-0.9884885549545288,-1.1582649946212769,-1.3468815088272095,-2.0198516845703127,1.0327483415603638,0.09181632101535797,1.061811089515686,1.0253645181655884,0.9727281332015991,1.1424708366394044,-2.009333610534668,0.8774574995040894,1.9184215068817139,0.1486922800540924,0.6885539293289185,-1.7106995582580567,-0.7927716374397278,0.28502777218818667,-0.9958258867263794,1.3157414197921754,0.5044574737548828,1.3042610883712769,1.9323924779891968,-0.32329630851745608],"bias":0.0},{"value":0.576286256313324,"weights":[-0.7392908930778503,-1.4471521377563477,1.9089001417160035,0.9273574352264404,1.8116904497146607,-0.7125189900398254,-1.888692021369934,0.8687865734100342,-1.5967764854431153,-1.0297929048538209,1.6685330867767335,-1.509247899055481,-0.922044575214386,1.5639559030532838,-1.47869873046875,1.864380955696106,1.993383526802063,0.7105281352996826,1.2323801517486573,-0.1538318395614624,-1.7960387468338013,0.13069464266300202,-1.7595431804656983,-1.2956846952438355,1.3858662843704224,0.8059133887290955],"bias":0.0},{"value":-0.9950595498085022,"weights":[0.6816840767860413,0.4634873569011688,0.06589463353157044,1.3645600080490113,1.8673350811004639,0.3089725971221924,1.0851469039916993,1.6535699367523194,-0.40278834104537966,-0.5403667092323303,-1.07902193069458,-0.1673116385936737,0.21096475422382356,0.9435444474220276,0.12227202951908112,-0.5292985439300537,-1.0445218086242676,-1.9022172689437867,-0.8599963784217835,-0.9154521822929382,-1.912018060684204,0.2865193486213684,-0.474784791469574,-1.4620513916015626,-0.26128676533699038,-1.5752620697021485],"bias":0.0},{"value":0.9969392418861389,"weights":[-0.6033417582511902,1.6307610273361207,-1.6782724857330323,0.15815173089504243,1.4663362503051758,1.866639256477356,-0.6497599482536316,-1.7378286123275757,0.40187868475914,0.2409728467464447,-0.7034802436828613,1.5020397901535035,1.1932510137557984,1.7360303401947022,0.19813194870948792,0.01696138270199299,1.4609121084213257,1.605049729347229,0.7779064774513245,-0.09996514022350311,1.6386443376541138,-0.6110706925392151,1.7199114561080933,1.3302078247070313,0.6015008091926575,0.9938282370567322],"bias":0.0},{"value":-0.9515599012374878,"weights":[0.20192530751228333,0.6110497713088989,-0.6493136286735535,1.8352361917495728,0.9364815354347229,0.06322705000638962,-1.855040431022644,0.4321780502796173,1.4226562976837159,1.274377703666687,-1.5552767515182496,-1.635001540184021,-0.28489089012145998,1.609545111656189,-1.5568902492523194,1.7469146251678467,1.6030634641647339,-0.36937370896339419,-1.1437220573425294,0.7209070920944214,-1.752118468284607,1.6813164949417115,-1.3643031120300294,0.07392485439777374,-1.134005069732666,-1.4141697883605958],"bias":0.0},{"value":-0.90153968334198,"weights":[-0.9003829956054688,1.9045754671096802,-0.8308747410774231,-1.763981819152832,-1.5376769304275513,-0.5068734884262085,0.6574881672859192,0.17109666764736176,1.334816575050354,0.04789729416370392,-1.6246888637542725,-0.551410436630249,-1.4561651945114136,-1.5960314273834229,1.109727144241333,0.319112092256546,-0.5424933433532715,-1.3657454252243043,-0.21827028691768647,-1.7727869749069214,-0.6372838020324707,1.5632662773132325,0.851631760597229,-0.7757497429847717,0.5250623226165772,1.2366480827331544],"bias":0.0},{"value":0.6540242433547974,"weights":[1.947494626045227,0.6618524789810181,0.28313320875167849,1.5359902381896973,1.144521713256836,0.3226429522037506,1.6099565029144288,-0.7634564638137817,-1.5055006742477418,0.5472627282142639,-1.0072100162506104,1.9160687923431397,0.47780340909957888,1.9318621158599854,0.2560686469078064,-0.8561897277832031,-1.4176818132400513,1.134209156036377,-1.9615349769592286,1.1063952445983887,0.8515503406524658,-0.58002769947052,1.1184908151626588,1.0021685361862183,1.825527548789978,1.7132487297058106],"bias":0.0},{"value":-0.9755257964134216,"weights":[0.30996546149253847,0.3973390460014343,0.5647037625312805,0.5773829817771912,-0.15245366096496583,1.6419446468353272,-1.7137788534164429,-0.8405706286430359,1.5085796117782593,1.670931100845337,0.19464537501335145,0.9222024083137512,-0.5858452916145325,-0.4618857204914093,1.8946003913879395,-1.991487741470337,-1.9640133380889893,0.8332275152206421,1.433686375617981,-1.715806245803833,-1.1884316205978394,1.0462419986724854,-0.9100175499916077,0.0038526952266693117,-1.3344802856445313,0.43820643424987795],"bias":0.0},{"value":-0.9625859260559082,"weights":[0.13837599754333497,-0.5794107913970947,1.3687310218811036,1.4345755577087403,1.6602282524108887,1.6710004806518555,-0.6062448024749756,-1.950460433959961,-1.783566951751709,0.21985983848571778,0.38578295707702639,1.039884090423584,0.012840986251831055,1.9153103828430176,1.538996696472168,0.43444085121154787,1.3135523796081544,-0.38509058952331545,-0.5706303119659424,0.4138953685760498,1.2623109817504883,-1.9143180847167969,-1.3919529914855958,1.0754919052124024,0.1250932216644287,-0.8724243640899658],"bias":0.0}]},{"neurons":[{"value":0.9803812503814697,"weights":[0.3380085229873657,1.5049912929534913,1.0072472095489503,-0.6119617819786072,-0.10141917318105698,0.6231644749641419,-0.9028960466384888,-1.8866839408874512,1.4875950813293458,1.070426106452942,0.7991169095039368,1.0616544485092164,-2.0408318042755129,0.1747044324874878,-0.3419837951660156,0.3246361017227173,0.9647397398948669,-0.008713535033166409,-1.683799147605896,1.6876474618911744,-0.13023622334003449,1.220075249671936,1.6039938926696778,-0.028861697763204576,1.3037724494934083],"bias":0.0},{"value":0.7791763544082642,"weights":[0.9667168855667114,1.704227328300476,0.3868143856525421,1.1015815734863282,1.026143193244934,0.07109851390123368,-0.06491369009017945,-0.8698332905769348,0.03503954038023949,-0.3363345265388489,1.0588840246200562,0.3839784264564514,1.317330241203308,0.7332970499992371,-1.194358229637146,1.1836533546447755,-0.6946478486061096,-0.3938595950603485,0.001748071052134037,0.5395326614379883,-1.7658281326293946,-0.0010539384093135596,-1.1803065538406373,-1.513312816619873,0.7338990569114685],"bias":0.0},{"value":-0.9570083618164063,"weights":[0.513957142829895,-0.7210530042648315,0.506348192691803,-0.4939020276069641,-0.5893999934196472,1.0118778944015504,0.10798631608486176,1.7430599927902222,0.8470523357391357,0.7206493616104126,-1.8621656894683838,0.7235000133514404,-0.941281795501709,-1.8635104894638062,-0.6237793564796448,-1.396862506866455,0.8650838136672974,-1.7841511964797974,-0.7483135461807251,-0.9515938758850098,-0.8090429902076721,0.32851433753967287,-1.2077335119247437,0.23031730949878694,0.10181546211242676],"bias":0.0},{"value":0.0478648915886879,"weights":[0.034324247390031818,-1.0073529481887818,1.9750409126281739,1.3739328384399415,0.8052024841308594,0.03168291971087456,0.10527320206165314,-0.5959503054618836,-1.3792997598648072,-0.8316307067871094,1.5649398565292359,-0.8135510683059692,0.41340336203575137,1.3269569873809815,-0.13947297632694245,-1.9105321168899537,0.3632315397262573,-0.4842313528060913,-0.5320022702217102,-0.11708073318004608,1.876263976097107,-1.6161987781524659,0.23209865391254426,-0.7367579936981201,-0.0052182674407958988],"bias":0.0},{"value":-0.775597333908081,"weights":[-0.8809221982955933,-1.5272694826126099,0.7518404722213745,-0.9655811190605164,-0.16780932247638703,-1.8793866634368897,-0.86995530128479,-1.120837926864624,1.127614140510559,-0.6250923871994019,1.5977128744125367,-1.1843825578689576,1.4022216796875,0.44515183568000796,0.39688625931739809,-1.0188910961151124,-0.3846609592437744,-0.36229658126831057,0.6567345261573792,1.3607925176620484,0.9157257676124573,-0.9739512801170349,-0.25970858335494997,0.6263827085494995,-1.5081548690795899],"bias":0.0},{"value":-0.9788219928741455,"weights":[0.6943616271018982,-1.342699408531189,-0.513251543045044,-1.5815473794937134,1.1040573120117188,0.8843050003051758,0.4992164969444275,-0.5528165102005005,-1.2777020931243897,-0.22777849435806275,1.5618067979812623,-0.7315607070922852,1.0866367816925049,-1.044925570487976,-1.370726466178894,-1.4067007303237916,0.4395696818828583,1.3511759042739869,-1.9187002182006837,0.28146299719810488,1.4206209182739258,-1.2779649496078492,0.7532768845558167,0.6553424000740051,1.6195316314697266],"bias":0.0},{"value":0.9978886246681213,"weights":[-0.5672857165336609,0.6378295421600342,0.6291903853416443,1.4096931219100953,0.06311871856451035,-0.384418785572052,0.7540391683578491,-1.007856011390686,0.13112927973270417,1.067443609237671,-1.3242640495300294,2.0052452087402345,-1.8595274686813355,-1.507554054260254,0.038186028599739078,-1.4913508892059327,0.013034502044320107,-1.9742817878723145,0.17659065127372743,-1.4649218320846558,0.07929819077253342,-1.424080729484558,-0.36989811062812807,-2.0273849964141847,-0.8151023387908936],"bias":0.0},{"value":-0.44407740235328677,"weights":[0.8766008615493774,-1.3338340520858765,-0.027100741863250734,1.798625111579895,0.12035712599754334,-1.792508602142334,0.6581240296363831,-0.37649884819984438,-1.4755606651306153,-1.5033495426177979,1.821083903312683,0.8567774891853333,1.050021767616272,-1.235674500465393,0.928013026714325,-1.7337093353271485,-0.654137909412384,0.2845589518547058,0.16875706613063813,0.7428430914878845,-1.4287358522415162,0.5759332180023193,0.052319157868623736,-0.312178373336792,0.9181575179100037],"bias":0.0},{"value":-0.9821943044662476,"weights":[-0.9965611696243286,0.02461899071931839,-0.1375093162059784,1.8440873622894288,-1.320175051689148,1.055450201034546,0.23313921689987184,1.7483007907867432,-0.6513693332672119,1.7059929370880128,1.262295126914978,0.923018217086792,1.5180317163467408,-1.1893690824508668,0.7857643365859985,-0.7132636308670044,-1.7171200513839722,-0.7338474988937378,0.15821310877799989,0.5415262579917908,1.4742090702056885,0.3714604675769806,1.7866911888122559,1.9966096878051758,0.32913804054260256],"bias":0.0},{"value":-0.866172730922699,"weights":[0.820492684841156,0.49509119987487795,-0.5326292514801025,-0.5925800800323486,0.21258902549743653,-0.21381449699401856,1.3073511123657227,0.2193601131439209,0.19573330879211427,1.2007884979248047,-0.7694566249847412,1.763014316558838,-0.14187359809875489,1.9613776206970215,-1.299546241760254,-0.3027355670928955,-0.7161767482757568,-0.6885149478912354,-1.8842425346374512,-0.6317269802093506,-0.14226174354553224,0.8561133742332459,-0.4772193431854248,-0.35281968116760256,1.2273941040039063],"bias":0.0}]},{"neurons":[{"value":0.33698782324790957,"weights":[-0.7796057462692261,1.2630733251571656,-0.8465714454650879,0.25383272767066958,-0.15116514265537263,1.2740869522094727,-0.5009278655052185,0.6706920862197876,-0.6167640686035156,-1.1325664520263672],"bias":0.0},{"value":-0.9968433976173401,"weights":[-1.0252612829208375,-0.19780763983726502,0.9816812872886658,-0.4910394847393036,-1.2280206680297852,0.5068061351776123,-1.7839548587799073,0.7799652814865112,1.6402404308319092,1.208024501800537],"bias":0.0},{"value":-0.5091645121574402,"weights":[1.2164149284362794,-1.6314624547958375,1.226943850517273,0.7696616053581238,-1.1563535928726197,0.32900363206863406,-1.7217110395431519,-1.868491291999817,0.47197461128234866,-1.0042595863342286],"bias":0.0},{"value":-0.5706654787063599,"weights":[-1.9152848720550538,-0.3638196289539337,0.9821692109107971,0.6240454316139221,-1.343284010887146,1.486383318901062,0.5781046748161316,1.6658588647842408,-0.7882969379425049,-1.8194141387939454],"bias":0.0},{"value":-0.9390839338302612,"weights":[-1.2077057361602784,-0.7877305746078491,0.5126315951347351,1.1488345861434937,-0.4386332035064697,2.133408784866333,-0.5487470030784607,-0.6432973742485046,0.8911839127540588,-1.9143710136413575],"bias":0.0},{"value":0.9729902148246765,"weights":[1.2525537014007569,1.48811936378479,2.049492835998535,2.0741209983825685,0.3254200518131256,-0.3635643720626831,0.1854672133922577,-0.00035892240703105927,-1.8993903398513795,-1.8604273796081544],"bias":0.0},{"value":0.9966118931770325,"weights":[0.8632449507713318,1.178960919380188,-1.3769028186798096,1.0869972705841065,-0.3682745397090912,-0.861979603767395,0.7914937734603882,-0.03173377364873886,-0.5087372064590454,-0.9366838932037354],"bias":0.0},{"value":0.09552671760320664,"weights":[-0.9202205538749695,0.4953143000602722,-0.42504236102104189,1.454376220703125,-1.2271757125854493,0.5086278319358826,-1.0691404342651368,1.0972073078155518,-0.9899686574935913,-0.4148519039154053],"bias":0.0},{"value":0.8670539855957031,"weights":[-0.5693618059158325,1.130836009979248,-0.09559763967990875,0.6321150660514832,-1.1811068058013917,-0.20468755066394807,1.0583735704421998,-1.465284824371338,0.6182509660720825,0.021369218826293947],"bias":0.0},{"value":0.9932273030281067,"weights":[1.8614006042480469,1.2870421409606934,-0.7645108699798584,0.09352993965148926,-1.292616844177246,1.3126425743103028,1.965489387512207,0.03767275810241699,0.1751415729522705,-0.7278945446014404],"bias":0.0}]},{"neurons":[{"value":-0.9937278032302856,"weights":[0.7326993346214294,2.5774645805358888,1.7228184938430787,0.022076468914747239,1.1086924076080323,-0.9624925255775452,0.29674580693244936,0.04250068962574005,-0.22876492142677308,-0.6778147220611572],"bias":0.0},{"value":-0.992335319519043,"weights":[3.514350175857544,0.6912519931793213,-0.7758879661560059,0.6336617469787598,0.7319717407226563,-1.644837737083435,-1.1916496753692628,1.6872336864471436,-2.1643946170806886,-0.9043581485748291],"bias":0.0},{"value":-0.6331457495689392,"weights":[-1.4135080575942994,-0.14883773028850556,1.7113946676254273,-0.3768743872642517,0.875657856464386,-0.23669320344924928,-1.0938879251480103,-0.5221338272094727,0.7590060234069824,1.0325493812561036],"bias":0.0},{"value":0.2698974609375,"weights":[-1.5505890846252442,-0.5433639287948608,-0.6165175437927246,-1.2124037742614747,1.8908965587615967,0.8495357036590576,1.298368215560913,-0.6878281235694885,1.3614293336868287,-1.9441404342651368],"bias":0.0},{"value":-0.9811894297599793,"weights":[-0.08027863502502442,0.7293757796287537,0.7726745009422302,0.16828179359436036,1.8924345970153809,-1.5793771743774415,1.0227007865905762,1.7223129272460938,-1.934748649597168,0.3968689441680908],"bias":0.0}]},{"neurons":[{"value":0.9317673444747925,"weights":[-1.1532559394836426,-1.7849688529968262,1.141038417816162,1.9489121437072755,-0.634329080581665],"bias":0.0},{"value":0.4003989100456238,"weights":[0.2188270092010498,-1.205009937286377,-0.3651454448699951,-1.0522522926330567,0.07874226570129395],"bias":0.0}]}]}